{
  "name": "exhibit001_mlp_demo_v1",
  "createdAt": "2025-12-12T03:18:40.263Z",
  "note": "Deterministic demo weights for Exhibit 001 visualization.",
  "layers": [
    {
      "in": 64,
      "out": 48,
      "w": [
        -0.04515241305498993,
        -0.10708750806879515,
        -0.12152557592872619,
        -0.11950372879265142,
        0.037300357765060466,
        -0.11161002463328126,
        0.059887490886986104,
        0.10805116660323161,
        0.09275549434940294,
        0.051640349069614955,
        -0.03562505470877618,
        -0.017262417713828873,
        0.03253967732369067,
        -0.10591061263745051,
        -0.007172903931103197,
        0.06549223124949104,
        -0.2687721364629674,
        -0.10989413154434621,
        0.18086377851205446,
        -0.0035557046466992803,
        -0.15264469427774846,
        -0.1590225063420327,
        -0.14110942780110053,
        0.0597359377569619,
        0.09409536580018771,
        -0.01248261465790485,
        0.15633984260471967,
        -0.08764712841254318,
        0.10720807802998986,
        -0.02231301125415856,
        -0.12372139292969672,
        -0.10302304545325737,
        0.121100471989733,
        0.09203050257914802,
        -0.039141515799253096,
        -0.10093245130491575,
        -0.0011960118235706432,
        0.04018488548404612,
        -0.036892605455361216,
        -0.13581932043403777,
        0.040773370546119354,
        -0.01791828435361689,
        -0.11644289546197814,
        0.1631896900804132,
        -0.10458894526862175,
        -0.02720308371685938,
        0.04368135217941074,
        -0.2072503914636977,
        0.061982456106236115,
        0.2620034371409444,
        -0.07138700334663363,
        -0.04901364751692895,
        -0.047919015712351694,
        -0.11764122657449962,
        0.078241141648388,
        0.08419436563644998,
        -0.20002118981914505,
        -0.07777224298520612,
        0.060687215528569496,
        -0.09433553142565361,
        -0.002459727412941022,
        -0.13433719742439654,
        0.04289269526354268,
        -0.18464252253655708,
        0.08967380652868341,
        -0.11576533280715837,
        0.017924383848199464,
        0.1356530962638668,
        0.09961824404855224,
        -0.05851160597147356,
        -0.10381906228849958,
        -0.2115752630647783,
        0.16885140563489215,
        0.06480625226089021,
        -0.021647133853156857,
        0.05115317269335047,
        0.03148662086002587,
        -0.06323799516509758,
        -0.01576565923399338,
        0.03784496190237919,
        0.1327215644487259,
        0.022753411288325674,
        -0.06937672744504317,
        -0.06851463175959718,
        0.17567348765995935,
        0.023741965825171327,
        0.17161327773764304,
        0.12574009003637984,
        -0.10086420851164028,
        -0.01181473658838716,
        0.12135427596265755,
        0.01884362921350593,
        -0.09133998457219786,
        0.09281778910487032,
        0.06209452387700764,
        -0.09052763414338272,
        -0.03216968031504925,
        -0.10235197518429488,
        -0.06919382555375342,
        0.009466967419009834,
        -0.0365747676125487,
        -0.17744112085587024,
        0.06590343439214025,
        -0.10281509984504944,
        0.07645210000540739,
        0.004364629728313266,
        0.006179911947015442,
        0.09748937772387453,
        -0.07622799156770979,
        -0.0309678135625948,
        0.09029226083899872,
        -0.0667641328224841,
        -0.0432035873777349,
        0.14977624469472514,
        -0.007009406805422078,
        -0.08513345200273899,
        0.05874012862968467,
        0.20328229972541842,
        0.05496179434623448,
        0.10150142746866991,
        0.14794403607222756,
        -0.11057130633910252,
        -0.2390027671196738,
        -0.1112778110165831,
        -0.02047018099202057,
        -0.022416596255358356,
        -0.11555230752526259,
        0.19187929586135943,
        -0.10072936708723408,
        -0.034320054897153056,
        -0.1318656049405745,
        0.08771500189635772,
        -0.10403293800852793,
        -0.26175548555037964,
        0.08957625369828026,
        0.17167252725720739,
        -0.1420324245955719,
        -0.2190963053576689,
        -0.060151326629131384,
        -0.15871316420368586,
        0.06274109687343983,
        -0.14492444440014574,
        0.09007905975346925,
        0.04222012135491951,
        0.187648284901477,
        0.066108437441826,
        0.023884203487858597,
        0.09818025877498582,
        -0.26414166554265694,
        0.061613100618749445,
        -0.26228427225688644,
        -0.25883425409706307,
        -0.08514667497963581,
        0.05184047097912083,
        0.0564049174707419,
        -0.09311106929932789,
        0.04699940665670938,
        0.11091360123350469,
        -0.1238780818832595,
        -0.02055711215691149,
        0.16404297190791647,
        0.169404243472597,
        0.15154074314091448,
        0.10681545062356963,
        -0.005113094466832667,
        -0.0850665635104759,
        0.16866403227732282,
        0.09996569946512347,
        0.19490301208263033,
        0.02936670121963204,
        0.009253912239152834,
        -0.08641234373430676,
        -0.13913624312326212,
        0.07786591355846104,
        0.07573613099004187,
        -0.1279644994627397,
        0.1127236456342963,
        0.14790558132813944,
        0.17800315211639314,
        -0.017303274484355827,
        -0.1449137696374152,
        0.07240626437517303,
        -0.06316072093169368,
        0.005577938897194607,
        -0.06320028540374029,
        -0.10639127642288006,
        0.06090559825483694,
        -0.06205261945114973,
        0.2076045019932592,
        -0.02373114504883212,
        -0.2267760041033415,
        -0.12220811197150237,
        -0.03346013889490693,
        -0.15394592751371283,
        -0.10217298038166267,
        0.03433712282035431,
        -0.13754131523250784,
        0.029243525809772797,
        -0.08650215480823402,
        0.026410133411578086,
        -0.022486357985914935,
        0.01885751271551518,
        0.1427321482124514,
        0.0974306132171705,
        0.28362712941960116,
        0.11527176788043152,
        0.13582591309387765,
        0.05370283173368009,
        -0.0040129692111264305,
        0.19020345383421358,
        0.06526973324852907,
        -0.05694649552658233,
        0.029240529321275646,
        -0.22405111291747654,
        0.06429011093710582,
        0.06631731169747894,
        0.1794093464074043,
        0.06161643184867132,
        0.052241158047989844,
        0.07304517347186033,
        0.06808310059001882,
        0.06289107858355439,
        -0.07518898572400878,
        0.15053820757799086,
        -0.019556934469652124,
        0.1594314342803441,
        0.020002612643850726,
        0.07327863255917356,
        -0.026195619403410867,
        0.1033450662766802,
        -0.07348593957494771,
        0.27697212345821626,
        0.041275744587747076,
        -0.013835291887426398,
        0.08248718749089003,
        -0.07137979297062837,
        0.0009212023664922567,
        0.08791352273008034,
        0.049255527227378755,
        -0.16179302166099754,
        -0.15230896026853624,
        0.14630962484495344,
        0.08777309119347378,
        -0.21078535440345633,
        -0.04239748922508566,
        -0.12906837733042742,
        -0.15048345989568043,
        -0.01862706598519066,
        0.04298144793668447,
        0.0522710919441062,
        0.08362426884534317,
        -0.18984347506540564,
        -0.013111486886553097,
        -0.13897079086993827,
        -0.11272607463396586,
        0.006110347225560796,
        -0.04432105579527097,
        -0.08778190201418154,
        0.01887372748838282,
        -0.14286487696386344,
        0.035674479487818524,
        0.009958913005644457,
        -0.20877256801658894,
        0.053493393945069516,
        -0.0302241479197722,
        0.05770957423421735,
        0.03837784242471501,
        -0.12499826696992881,
        0.02144854105946092,
        -0.007805775100998233,
        0.15454155331580643,
        0.040477176353254686,
        0.24202445440491982,
        0.09148896001366415,
        0.26072588783221556,
        0.024911603251343614,
        0.10420859037179006,
        0.016588823752872593,
        -0.21893530700016656,
        0.019966987355159355,
        -0.01606486185277663,
        -0.19894699806047053,
        0.16770821731296615,
        0.08121623079936799,
        -0.14933020830998875,
        0.12229148944248132,
        0.015775695387589023,
        0.1634239057179732,
        -0.031350317431473713,
        -0.019341364663089507,
        -0.11249944727067986,
        -0.07151475172072196,
        0.20808667359957014,
        -0.07948999161607041,
        0.06018967404518142,
        0.04079882607425994,
        -0.24278699708550322,
        0.06969389268509991,
        0.019994208767613465,
        -0.11112189516556617,
        0.025300738767209317,
        0.04990952297984375,
        0.10106847340288957,
        0.18335544974572526,
        -0.08574296722652343,
        -0.16127532723855906,
        0.03818756664985143,
        -0.03375522673207952,
        -0.09654973196291765,
        0.033832897719545806,
        0.02548512378214035,
        0.3600019852977179,
        -0.09982699441523564,
        0.25287871815348545,
        0.04447241040624904,
        -0.162754915430961,
        -0.0670847724519403,
        0.03141007498149043,
        -0.16967537212089134,
        -0.0006615315169633498,
        -0.04549271834988712,
        -0.0073112707935166195,
        0.06296429296814837,
        0.05221848714005071,
        -0.04582846454428837,
        -0.01890314425903869,
        0.029820059194240578,
        -0.045937340781369164,
        -0.03482292223756011,
        0.11681590858708067,
        0.01570312146438457,
        0.08854874105371928,
        -0.03515862978139421,
        -0.1306847255888558,
        -0.08274212656219382,
        0.07628947602952889,
        -0.047607335802920994,
        0.06439803869659294,
        0.06012694023369821,
        0.13376301963149553,
        0.015171952949444666,
        0.011236027000136173,
        -0.04140974683536221,
        0.04954612738334075,
        0.11106616552903126,
        -0.054593856920446736,
        -0.22042691039722503,
        0.060506229464520916,
        -0.10696984945890156,
        0.05118374246577929,
        0.12101182795592774,
        -0.16755569294979342,
        0.1364852416088937,
        -0.03223798272904447,
        0.045341277979159336,
        0.01565660675227888,
        -0.09150212153710961,
        -0.07498558776486013,
        -0.07071808215708952,
        0.008172975313535584,
        0.08569698052416254,
        0.10480726458581689,
        -0.05138251683420871,
        -0.12093867259861985,
        0.029986337423764012,
        0.04224646359033099,
        0.008933810855968583,
        0.028064953278389242,
        0.03027731237978062,
        0.010712022710991993,
        0.034688236678973694,
        -0.022829178428485582,
        -0.041422435673025115,
        -0.1462983257177153,
        0.07888627804909859,
        0.11048003919706066,
        -0.07469204228619863,
        -0.07955507294702395,
        -0.13881011403678867,
        0.015983700707418207,
        0.11296763130777057,
        0.24897565847197,
        0.25914342269617135,
        0.03927560422734666,
        0.14905642780805875,
        -0.025543371214529032,
        0.058676261824059175,
        -0.20841618760726066,
        -0.25130997928695376,
        -0.03907371925399495,
        -0.2704781118647138,
        0.05762789331792691,
        -0.015023811522022295,
        -0.03088342459810502,
        -0.1415179766838139,
        -0.015592590295057107,
        0.1385724530637054,
        -0.03967886824453454,
        -0.1333984783475975,
        0.1481605111539837,
        -0.009974201129841754,
        -0.11630252178927182,
        -0.07063609161204651,
        -0.03157067532580676,
        0.03399620245051735,
        -0.036689251112301244,
        -0.11750826872947825,
        0.07737254284270056,
        0.09033403344213187,
        -0.05419729995093456,
        0.149439901848554,
        0.025070183246601256,
        0.26087343449539674,
        0.07445934138263496,
        -0.11472050113138994,
        -0.13280971863411942,
        -0.09036157282318734,
        -0.09958622774511895,
        -0.1393604962154356,
        -0.08583235652782745,
        -0.0579742997057187,
        0.15192185628295723,
        0.08353216324277336,
        -0.20214699278741563,
        -0.022835828436926497,
        -0.018096626663287832,
        -0.024108960406704256,
        -0.07430699179076404,
        0.01804470948781159,
        0.18132103945199554,
        -0.1257081056401754,
        -0.04051383106990941,
        -0.08330720768431003,
        -0.023368372301744596,
        0.0856857439187551,
        0.3079169480262553,
        0.0741542645707959,
        -0.09450513163459436,
        0.05790679440886499,
        -0.10083398482750686,
        0.1597178092866796,
        0.05721352175738245,
        -0.15746028319666502,
        0.07996970531410497,
        0.15272046002696704,
        0.031929485987805185,
        0.012964715060598556,
        -0.15794477226768747,
        -0.11516753025377978,
        0.026578792140327934,
        0.19680619773875183,
        -0.05422976978715464,
        0.041489027327385235,
        -0.2571844503640398,
        -0.1857523618311554,
        0.0746403898533079,
        0.0534096992692782,
        -0.07347869038409464,
        -0.014561887753593896,
        -0.01940777885519283,
        0.09057556627715448,
        0.0682212827197854,
        -0.05948089024571741,
        0.0005957556428610775,
        0.14812586968624775,
        0.09571484027595621,
        0.15203782899523013,
        0.021934859269132356,
        -0.12332939284413086,
        -0.1047834968230821,
        0.13045538660271563,
        -0.0503033122865657,
        -0.16833497776867082,
        -0.07861468287988901,
        0.26075326550156386,
        0.1563147975672439,
        0.19854945669864374,
        -0.02920335428749571,
        -0.20938856379946086,
        0.09200757082695475,
        0.15871055146339777,
        0.13479660743797983,
        0.27207270231604763,
        0.3274896575819415,
        -0.10915726874523518,
        0.12603668496907444,
        -0.054202229981387955,
        -0.07124255872468735,
        -0.12205712712792027,
        -0.04641939349754076,
        -0.15281642081405677,
        0.053399334589427326,
        -0.028974800782005605,
        -0.029084356606062917,
        -0.15445940588842158,
        0.17702872073138265,
        0.05067906044062021,
        -0.1308882833081009,
        -0.010086805179636327,
        -0.10142883079773914,
        -0.02072111304942537,
        0.10437784413506362,
        -0.04042174150893865,
        0.06741007134870171,
        0.16544323365908803,
        0.19438737713612636,
        -0.021458302660174816,
        -0.32209372756359833,
        -0.13150108885081035,
        -0.05269749133393801,
        0.018235352643476314,
        0.06376977496769125,
        0.08998808888311638,
        -0.010477528902682427,
        -0.04214147730011869,
        -0.321624299778074,
        0.21814158626183375,
        -0.15867464277322027,
        0.16705487910053785,
        0.051021860509205375,
        0.13434665432943318,
        -0.07788787319059402,
        0.020870236575098004,
        -0.08479344291760901,
        -0.17769785733095486,
        0.1028286729459058,
        -0.037711172903336,
        -0.14771984976183125,
        0.19981887906310022,
        -0.00494098184176032,
        0.004196314570410675,
        0.06743700155673563,
        -0.054592090590288724,
        0.07596629689610804,
        -0.07561878308788063,
        0.2665255407909885,
        -0.012803937615487126,
        0.02247408295372025,
        -0.1031339893684742,
        0.1338263478488354,
        0.0856302371639453,
        -0.1391851712135146,
        0.02685667096470371,
        0.22355117102549546,
        -0.09805636807262645,
        -0.1971426150738027,
        0.15754996338138963,
        -0.09179896575628972,
        -0.08805772394052268,
        0.19573203588363214,
        -0.06613247453342448,
        0.07462196551837154,
        -0.08789818164090261,
        -0.15222477329217757,
        0.0403983678735945,
        -0.14866004532714258,
        -0.017413059667255922,
        -0.03923960569929946,
        -0.07061616638512686,
        -0.00519991736487508,
        0.09282708884858354,
        -0.038444755753395704,
        -0.005785083487760467,
        0.05758184592583486,
        0.03511051179832577,
        -0.13260784456268734,
        0.06426478440208697,
        -0.024195516340873753,
        -0.08492656241700018,
        -0.06641323688884476,
        0.011810848729134633,
        0.2713045000027675,
        -0.08945741560877549,
        -0.05438563910411874,
        0.10164856369606122,
        -0.05175054720537033,
        -0.07545051600915016,
        -0.07320310341888223,
        0.06366978788026413,
        0.058156671219010095,
        0.020211104840855594,
        -0.09809488473744431,
        0.11957613378159018,
        -0.06454495932806147,
        0.07258756858949394,
        0.03967364318310354,
        -0.03930412911504622,
        0.05755287847267424,
        -0.06137666592068383,
        0.09992091968232844,
        -0.05599093462481906,
        0.031008700792903243,
        -0.14250603010644566,
        -0.02210166514565578,
        0.05149399899186775,
        -0.19820074081528424,
        0.0620777767186483,
        -0.13542671352186783,
        0.029856526634326065,
        -0.0609280099029367,
        -0.02051674505527392,
        -0.11058849025344643,
        -0.012472503536853695,
        0.0020139567685355207,
        0.06005122109003023,
        0.010981980349750604,
        -0.026897903458546497,
        -0.13382906411049622,
        0.027519412313242914,
        -0.16126686273178323,
        -0.1191625479471351,
        0.026571955306981646,
        0.055756653473578874,
        -0.16618944369134642,
        0.018142443958724126,
        -0.09555552952746126,
        0.018866863755775908,
        -0.04085468515244566,
        -0.1390139772026744,
        0.10214137658604591,
        0.06496343268891445,
        0.11039116951482959,
        0.1945870425933565,
        -0.021387507391293994,
        0.07880630506563024,
        0.10687978034951834,
        -0.23924059249254004,
        0.0742911354949366,
        0.07918277946318066,
        0.2060512627952231,
        0.32642208572634884,
        -0.14236556800943168,
        -0.20434071418167343,
        -0.1667501200489408,
        -0.12696533348078937,
        0.23649205158549433,
        -0.09451887119749781,
        0.07970318151723405,
        -0.13375262777341904,
        -0.1001166918082536,
        -0.008522592455612646,
        -0.049534820191386046,
        -0.11297869611850865,
        -0.003765615529355236,
        0.1540829258860923,
        -0.12235688627338148,
        0.07242175868350935,
        -0.14976752158667064,
        0.07127732058118588,
        0.18681618962825794,
        -0.06587464662725455,
        0.03398996369661652,
        0.2627935541753104,
        -0.11448362206061954,
        0.03461135423515951,
        -0.0014866355844365454,
        -0.029492489955308007,
        -0.05386022433448241,
        0.13209167222287388,
        -0.1279746751343518,
        0.026499629372623533,
        -0.10819339871903488,
        -0.08082334246634318,
        0.02879332659457329,
        0.1559005468731779,
        0.1671701043725888,
        -0.17212856755209965,
        -0.16387631566560656,
        0.182824025032305,
        0.09633772788986705,
        0.1099639956641156,
        -0.26646216133961564,
        0.09922117347255337,
        0.1038965765560599,
        0.05172003767331853,
        -0.03703119440828298,
        0.04412286712162985,
        0.22701196690159858,
        -0.33428282119038766,
        -0.21474752299352337,
        -0.178980424053521,
        -0.12073176474925838,
        0.17657377927203158,
        -0.13414599139344158,
        0.018759043700910354,
        0.14194490552038272,
        -0.00550970298131425,
        0.03691686707359339,
        0.22557496850955153,
        -0.06836027091562184,
        0.12345021518894748,
        -0.056187291413697826,
        -0.18634371154051374,
        -0.10727980657804359,
        0.09111843669444776,
        -0.1577252761243516,
        -0.230373883513677,
        -0.005523131607558862,
        0.04539020119115151,
        0.06195529223804695,
        0.06555637116940725,
        -0.0657134162370323,
        0.055740559872474484,
        -0.1168218894109272,
        0.04641334977509351,
        0.29247934821091565,
        -0.018196281584424948,
        0.07599922297251835,
        -0.1485171684937625,
        0.0397168086017097,
        0.005340899963657451,
        -0.07514078794651298,
        0.36716072840943015,
        0.20756017727334447,
        0.054556740301666753,
        -0.05631730287050534,
        -0.032867978443931176,
        0.05536036158667803,
        -0.18561010122339713,
        0.19236027064931607,
        0.12360070102702714,
        0.04082692585742685,
        0.04303814639196885,
        -0.0665447943216276,
        -0.1068582251546779,
        0.17742791249789228,
        0.14705005698106446,
        0.1344583253451948,
        -0.004894498119022759,
        0.008576843592738557,
        -0.20885928215744035,
        -0.025612610213747715,
        -0.16732835967273849,
        -0.4722446676125745,
        -0.1109700698372839,
        0.012318779762378917,
        0.19483816885611643,
        -0.030369986545297555,
        0.102588538090727,
        0.1934262674990182,
        0.08494114456399887,
        -0.14791525672320155,
        0.11177643448263988,
        0.2125996723079626,
        0.09375914966657113,
        0.08581553355500954,
        0.015318840105774778,
        0.020585473369863636,
        0.10713904414267947,
        0.08102265841335736,
        -0.11722651232737863,
        -0.0932337052648635,
        0.13794316598779693,
        -0.05727701389378878,
        -0.027372981808686084,
        -0.05345319350381543,
        0.22052827172023493,
        0.12209098026985879,
        -0.025673598504326593,
        0.040855657361293866,
        -0.07813284927721034,
        0.1293046644119826,
        0.18103412927975593,
        -0.21849984112609144,
        -0.15053183356425304,
        0.05472412806684489,
        0.055007093070859804,
        -0.03834333993532473,
        -0.18537277132220403,
        0.0612494239065899,
        -0.14448578260640854,
        -0.21062932092337935,
        0.05435807112642765,
        -0.0370102444002149,
        0.0525924599872686,
        0.08476957370945819,
        0.2101921641994249,
        0.1646788612897357,
        0.05964094382007527,
        0.0477306422987092,
        0.10468839802828434,
        -0.12467301470488147,
        0.2181136486191961,
        0.012130103432950895,
        0.18218451429150798,
        0.02951122564350501,
        -0.05972201208420402,
        -0.1058271710320423,
        0.0855095476006086,
        0.056494517244241586,
        0.05211758296500042,
        0.13542032609225776,
        0.04863240761958229,
        -0.014477663310737958,
        -0.052201863817905904,
        0.12649732883149967,
        -0.08090344357192816,
        -0.06392262586390571,
        0.15949241952414653,
        -0.011463777912343183,
        -0.09109801080007693,
        0.10083193144926263,
        0.029626914777396013,
        -0.023062654486803915,
        0.0564848351825708,
        0.19792483533511065,
        -0.050623765779873604,
        -0.02104686744291331,
        0.042622074520278885,
        -0.08835220011619375,
        -0.04938551687766907,
        -0.017448151703804912,
        -0.0620204896424746,
        -0.01806572842194974,
        0.006211590046890749,
        -0.047938440321242184,
        -0.019775164565921644,
        -0.1840839448245268,
        -0.005168201763353744,
        0.16474831877597887,
        -0.2343721173258477,
        0.11681469392541169,
        0.16765818438057864,
        0.06963476815747388,
        0.09717599195401423,
        0.08448016320644379,
        0.05133146125895442,
        -0.011661995978751791,
        -0.1252791916204408,
        0.020417978441350727,
        0.18223198841448227,
        0.20239566029034947,
        0.055385159340128,
        0.015565449591141206,
        0.1468057760915408,
        -0.07947284095580887,
        0.0870089983561746,
        -0.1330033223528225,
        -0.13484898127410147,
        -0.01055804566309627,
        -0.10895381583228705,
        -0.03483382000486754,
        0.08683883189873488,
        0.07703415248569952,
        -0.038225587518722695,
        -0.17653557583864307,
        -0.06836120569852144,
        0.13994062889602904,
        -0.07045311121573966,
        0.007499672722143512,
        -0.03054729985382984,
        -0.011916612023900272,
        0.059189027489781894,
        0.15241541143799053,
        -0.026401378149249144,
        -0.06875155109723015,
        0.14422025654118603,
        0.15804631512105424,
        -0.12909740738595707,
        -0.15382954996852785,
        -0.008727562970936704,
        0.044474219767723734,
        -0.24638441789635873,
        0.14778474679038336,
        -0.041500990316739844,
        -0.04850451120650813,
        -0.13143226856621773,
        0.038461442234150774,
        -0.05199373065053105,
        0.2480501008536591,
        0.14094931217555215,
        -0.18116232867055906,
        0.035073971500782855,
        -0.025751196546764363,
        -0.02749501652468486,
        0.31532788009594226,
        -0.1501580769114831,
        -0.1166444787507842,
        0.05471556095150572,
        -0.17330835572023953,
        -0.08681625404942357,
        -0.12580634461934237,
        -0.14656144339684787,
        -0.06361658055320715,
        -0.014618795189423951,
        0.19824252829954286,
        0.029145846933950916,
        -0.10327470831149603,
        0.17090990332884068,
        -0.1683946619931254,
        0.15413247543240144,
        -0.06895483404178882,
        0.00011313062357660459,
        -0.13020478864914506,
        -0.10720448156038298,
        0.07459506130889106,
        0.05278271837234997,
        -0.07365089146955577,
        0.05570672405120711,
        -0.12703249412211928,
        0.19670791306802,
        -0.1643474135839512,
        0.07585880622496018,
        -0.009262057863809929,
        0.0744551019601617,
        0.09864884964478123,
        -0.05872400989912026,
        0.011795284272958426,
        0.06387945059029791,
        -0.167348348721433,
        -0.05461156866159761,
        0.11580235109751529,
        0.05450274992779734,
        -0.08906030680359958,
        -0.1340160047696721,
        0.16622312213270482,
        0.08830413167892283,
        -0.21029710322888504,
        -0.09780615371683238,
        -0.022562701071441135,
        -0.058557273918726914,
        0.08863954833067941,
        0.1254901680058247,
        0.07046944639446606,
        0.06521832913548782,
        -0.07968657278644618,
        -0.05948423410873098,
        0.05799715150316782,
        0.12052023474399402,
        0.007674531456961578,
        0.13358259823560395,
        -0.00551468910735456,
        0.057335041400623045,
        -0.04526259238880132,
        0.016589806007406734,
        -0.04325788020681995,
        0.20560170311150675,
        -0.04618511731622789,
        -0.16805125313730626,
        -0.09409041106890716,
        0.08022448786621376,
        -0.05951803325519958,
        -0.09468655171524783,
        0.04983732083340404,
        0.11764437588379272,
        -0.043714396340554296,
        0.007892265310613548,
        0.013219296222163474,
        -0.10650451680456491,
        -0.14728837793463187,
        0.0335679898330214,
        0.084232130118053,
        0.15887362254700407,
        0.15306440134046317,
        -0.15433124391979644,
        0.08695573120331915,
        0.05380538140531738,
        0.09527420988096359,
        0.02725436542651606,
        -0.04916164904949319,
        -0.06104169417345899,
        0.08001575591721474,
        0.14668164401669664,
        0.013924690588495532,
        -0.13575020951212285,
        0.11803324710115741,
        -0.08661954866829498,
        0.06110642458668929,
        0.007971727720332769,
        -0.02652458930096771,
        -0.06997186768894921,
        -0.03412404716468512,
        0.11521217452577052,
        0.016832993927592743,
        0.12683380405879618,
        -0.11212751091920868,
        -0.04157190135663477,
        0.002900771991198538,
        -0.2540214748344827,
        0.12339609441648525,
        0.010931017169253845,
        0.19320558180861638,
        -0.06868649038364857,
        -0.045453545958015755,
        -0.024556971226906296,
        0.18216252853422185,
        -0.026681077275034323,
        0.010252209683074668,
        0.10834773774465095,
        -0.0707001594678448,
        -0.025301923107065118,
        0.05923455227494428,
        0.03403109495414762,
        0.010358881354585818,
        0.07086161499564132,
        0.12007367087873574,
        -0.1989564069277511,
        0.14921534119689633,
        -0.07601043236323585,
        0.07313362444552882,
        0.11225798212344276,
        0.009191669351102433,
        0.0192435098349958,
        -0.12474032805989735,
        0.07250241683703625,
        -0.04764756971448018,
        0.11828548302158925,
        0.02941767544931685,
        -0.03882026989559685,
        -0.16046001438298882,
        0.044424711610791326,
        -0.0729164079444996,
        0.1846270492949233,
        -0.24139300412101103,
        -0.15889043594001007,
        0.15122612338709296,
        0.07341520554374277,
        -0.09812735888705469,
        0.1246933123017876,
        -0.14732355145831758,
        0.008364348213434803,
        -0.014784291986774287,
        0.22618703679220206,
        -0.10327798726347696,
        -0.025096400987845012,
        -0.07116845838840397,
        -0.0781122903549002,
        0.13126520135797695,
        -0.0210093334488361,
        0.03641766152320949,
        0.060773308450939444,
        -0.18911502650744474,
        0.03959162740412339,
        0.04968052868744428,
        -0.019249690040518245,
        0.10953616868786616,
        0.047900987525931873,
        -0.09707942390581012,
        0.08989897040559834,
        0.12392852993384401,
        0.07131059260820007,
        -0.06806890204327971,
        -0.015502248089499213,
        0.16899148790478383,
        0.04703917529685644,
        -0.03791362395904264,
        -0.2260470659415161,
        -0.03889822263844101,
        -0.08406910293896239,
        -0.04579756656288751,
        -0.018502220916494467,
        0.11104434718601208,
        0.0010924567438451995,
        -0.10877878173064473,
        0.16220472074377779,
        0.04487884281097972,
        0.16592376877729287,
        -0.05988210816181275,
        -0.11142829690501091,
        -0.06736478560009082,
        -0.13955910743736138,
        -0.09671940659821687,
        -0.06640227277494393,
        0.0517161915866693,
        -0.0883191679284973,
        0.2073065088442647,
        0.03470159645048901,
        -0.13006381424941402,
        0.10462098447964037,
        -0.08369937391411353,
        0.141521907111015,
        -0.028478664032535406,
        0.11600144277160108,
        0.05150716613752635,
        -0.052267566611883066,
        0.09419926191887476,
        -0.16291182530304504,
        -0.008282243234436349,
        -0.031593644217845,
        -0.07317681926311549,
        -0.08385464225522232,
        0.10436826136373074,
        0.12193001633674401,
        -0.07363143419800887,
        -0.0904496695673566,
        0.0376488619841584,
        -0.1789515296311183,
        0.20781625524912065,
        0.12676074407351112,
        0.0805853386398926,
        0.2507150447344428,
        -0.05966439057575851,
        0.02304158606802513,
        -0.02109779054404723,
        0.07684512887308025,
        0.0033701142026511094,
        -0.026965659381395144,
        -0.11687769659264927,
        0.038128607416068216,
        0.0037110165344919816,
        0.017260351101348086,
        0.06998217555552085,
        -0.09565626188621475,
        0.07792044773891649,
        -0.01585969060270115,
        0.045946646967555675,
        -0.035685897794196154,
        0.13877640328669588,
        -0.14092171199373663,
        -0.06574887560504665,
        0.013548382928146389,
        0.04602625663833736,
        -0.08530069023372477,
        -0.05121890024874174,
        0.0742724557629063,
        0.21469908129869755,
        0.08768226669465826,
        0.1126223879798627,
        0.01997228316903024,
        -0.061767462233872125,
        0.0232884926679783,
        -0.027159758476250618,
        -0.059907262006276864,
        0.10028232267536083,
        0.09411867793162847,
        0.21005202351532612,
        0.046118625356910976,
        -0.00688310872032417,
        -0.01198100915583471,
        -0.024182620129086813,
        0.06778981088449991,
        -0.049944078073974,
        -0.04413083362312317,
        -0.0010552154019320538,
        -0.03895725858927554,
        -0.07279705925251004,
        -0.035830132960224165,
        0.05290629665240801,
        0.2126052246900069,
        0.024839672639816776,
        -0.10908422678076216,
        -0.16897445585759666,
        -0.07582870831255902,
        -0.06875317868925454,
        -0.04774295701123916,
        0.01068992829301825,
        -0.10683857199372342,
        0.13941758949620475,
        0.000614168033614739,
        -0.06280838422643921,
        -0.12878490418102295,
        0.11809352379285484,
        0.0691678402309631,
        0.1095494003848879,
        0.11545313497938466,
        0.16583202301388555,
        0.07277075110356507,
        -0.00939534211443658,
        -0.1012412332846719,
        0.057006889142126906,
        0.2748816072237312,
        0.03568036109512779,
        0.0016462054392911358,
        -0.008335877395994576,
        0.028183861333270038,
        -0.024238696761916086,
        0.042759191787117554,
        0.16916795177283897,
        -0.029833674372190252,
        -0.06570960363190202,
        -0.0006210873088530882,
        -0.012318637553999109,
        0.15499379226303595,
        -0.011518802715918604,
        0.11115770684536065,
        0.17234025272708858,
        0.1520105141219112,
        0.025242089685900467,
        0.05007239903059384,
        -0.05414118028327225,
        -0.05898309368485449,
        0.15929591726470316,
        0.08485222065489702,
        -0.1364337588707793,
        -0.05060924813260567,
        -0.11639383064478331,
        -0.009652737013683382,
        0.026683403928875846,
        -0.020585080086941564,
        -0.18012254127865907,
        0.1520151511122515,
        0.15066552338421693,
        -0.03846980590634812,
        -0.00391573988117756,
        0.042965281219602545,
        -0.08106250695888916,
        0.18609242501736223,
        0.13250281758497723,
        -0.2270044274667115,
        -0.17201616604099074,
        0.25122526154073793,
        0.07042367413995089,
        0.08835414222497388,
        0.028180146443405014,
        0.10168337716219014,
        -0.09042778342958291,
        -0.06025397578841342,
        0.16859016560151066,
        0.09783292033403954,
        0.07241006316671662,
        0.07361344929484574,
        -0.27324818634136566,
        0.02774900626324566,
        0.09805367611054154,
        -0.047784134017323586,
        0.0442072739298307,
        -0.10959347739782442,
        0.12617393961300477,
        -0.01098253355098407,
        -0.006440339497300121,
        0.12105382071136812,
        0.03822059018866382,
        -0.28726689720392984,
        -0.01408693488325357,
        0.18268335040420022,
        -0.21711154842735794,
        -0.1158832876149077,
        -0.1270111130348528,
        0.18807532470494115,
        -0.2032180871682584,
        -0.01859782065105341,
        0.22683752242337182,
        -0.1264064182506505,
        -0.11347430000175446,
        0.11427784764766534,
        0.02401665453298679,
        0.014262552100551548,
        -0.2409021254323872,
        -0.1982533796421851,
        0.15546035048985057,
        -0.03557652787636219,
        -0.04565137400394976,
        0.023990514608781374,
        0.09042915487091158,
        -0.0696563175589494,
        0.018873177756335426,
        0.050918996479200195,
        -0.020187914283340522,
        0.14893877325786567,
        -0.005774118958453053,
        -0.03649556297027766,
        0.004670729556670145,
        0.017756610439336663,
        -0.047666327960024985,
        0.050728778536023686,
        -0.09832616771175448,
        -0.16936886668216947,
        0.010048340538168787,
        0.045334870270271006,
        0.036756286530494224,
        -0.018615604175374858,
        -0.12796907682981826,
        -0.04759059827970482,
        0.22683308363670118,
        -0.045937543806391506,
        -0.10658916161012166,
        0.21420950721880963,
        0.15377852165130226,
        0.157355520147812,
        -0.14634657990515013,
        -0.15527079241136021,
        -0.00023265843748703155,
        -0.020258982487610884,
        0.019486427138929657,
        -0.054402766725820145,
        0.0151049361361764,
        -0.050941494529551774,
        -0.006506493675940667,
        -0.012686847824503526,
        0.10859855967858814,
        0.1486645773381827,
        0.14444644476115243,
        -0.09167297859498323,
        0.06964441047078239,
        0.06120772139018775,
        -0.11674984891806471,
        -0.0838727612164567,
        0.01018130117939752,
        0.18309660679084142,
        -0.13351211158850637,
        -0.004470718507536777,
        -0.07302005755670056,
        -0.020188511729622674,
        -0.11891358951864542,
        0.08486915044216332,
        -0.07148316939161467,
        0.007998848379332447,
        0.05761656396004541,
        0.02901665773320861,
        -0.08532941278931684,
        -0.308077480743587,
        -0.01820921276925918,
        0.07049450419032854,
        0.26731701527272766,
        0.23201838548757792,
        0.18794825030102935,
        0.0816171512896125,
        -0.07228983682348218,
        -0.014335728640424962,
        0.01410385505518894,
        -0.12182402326250523,
        -0.053573796268882146,
        0.031166646559752712,
        0.21913950178709474,
        -0.09286476364011131,
        0.1425579801364688,
        -0.035470262707412804,
        -0.1350140823282622,
        0.26584253649688033,
        -0.039618048156297436,
        -0.05408615672767129,
        -0.06439239060201066,
        -0.19058058718461215,
        -0.15329620157295487,
        -0.1875547871250719,
        -0.17900451133862025,
        0.11605468134134235,
        -0.1195716679450691,
        0.1274062255909743,
        0.04033328927535749,
        -0.2030488602421151,
        -0.03219466178742273,
        0.04690930178035685,
        0.025831338833986816,
        -0.04833896098255185,
        0.1219346725639169,
        0.07859565320751055,
        -0.07739096084142406,
        -0.06168329988586204,
        -0.09601751211401953,
        -0.03110807235726364,
        -0.1032270153222028,
        0.07428197554649948,
        -0.03053190660718366,
        -0.08675582312308881,
        0.11175684347852144,
        -0.00014298543356349371,
        0.006858300902779341,
        -0.1641169144085875,
        0.16489844605782822,
        -0.02148935034059927,
        0.03897128260280906,
        0.06516835619543196,
        0.15728485736173148,
        -0.006660346307425051,
        0.09805159765129495,
        -0.04884658184486711,
        -0.06633358069140913,
        -0.04798074058067419,
        -0.1341314737891811,
        0.050965038820391155,
        0.2103231590019458,
        0.04372215868663222,
        0.19010171138784632,
        0.1863763766870836,
        0.10658709425109775,
        -0.0680404316087165,
        0.015956700798365024,
        -0.18083034489085315,
        0.08324766228521015,
        -0.08585839325956142,
        0.03315336199784407,
        0.1475406061362543,
        0.021857032719865232,
        0.023208493084029048,
        -0.01589709853035997,
        0.1926922282707924,
        0.041585507550685456,
        0.2723755946950951,
        -0.2406136742006522,
        -0.13778762955595253,
        0.004291092064451991,
        0.001033178950110724,
        -0.02086861756657302,
        -0.23629551458900896,
        -0.09302125752579807,
        0.038902512136988705,
        -0.022702166345862806,
        0.029849219573926215,
        0.14723553013185028,
        -0.08483158707824959,
        0.14727140041219589,
        -0.008749195577130357,
        -0.15365440667153246,
        -0.05136819096505221,
        0.08530310710640054,
        0.013048192712696529,
        0.045882401831479784,
        -0.05664926411916017,
        -0.04305374896652942,
        0.14413346866165191,
        -0.009153610600912737,
        0.2417362805117505,
        -0.11623563129446776,
        0.1249774950714401,
        -0.13437683055501104,
        -0.13898862417548494,
        -0.09100761173169378,
        -0.02293795398321144,
        -0.06029271708909822,
        -0.06325839111128777,
        -0.12634132323653685,
        -0.21182483890503195,
        0.08436957214894193,
        0.03170933140341569,
        0.15574359772964036,
        0.04536081456668709,
        0.17603517164691526,
        0.1131851684265447,
        -0.17426354604768332,
        0.052921813609426265,
        -0.08269697687863299,
        0.1057179807977191,
        -0.1691152563422248,
        -0.020786527285254788,
        0.13623199141285233,
        -0.04039771551459511,
        0.22028512979051945,
        -0.0005574891706455268,
        -0.01769385201832205,
        0.0846820549182012,
        -0.14735640611202339,
        0.00860436934772615,
        0.050428634934116874,
        -0.30037765633533003,
        -0.10808881448777867,
        0.15594121056267313,
        0.04339829462776229,
        -0.05200709464366719,
        0.017061700070036993,
        -0.15112668191224343,
        -0.1536919858201847,
        -0.19522342306895835,
        -0.08304379414174332,
        0.1682952718276784,
        -0.18982801230471083,
        -0.12827467044137159,
        -0.03919898481072946,
        -0.11558413140494092,
        0.03427520624342106,
        0.022038416310685933,
        -0.0623696315168292,
        0.09125148902857155,
        -0.09029247286022683,
        0.013793041007627658,
        0.03813781738340994,
        0.17054617718909698,
        0.10289130483185961,
        -0.045720536557924026,
        -0.02170087756371198,
        -0.11746635289014072,
        0.02410488638783088,
        0.130275644009056,
        0.20482321596923178,
        0.008201614833909224,
        0.072337810149148,
        0.09069390240351076,
        0.04088265657095499,
        -0.016464205944820075,
        0.03957540235090255,
        -0.1467551985771629,
        0.06796840330272494,
        -0.029713543882299846,
        0.20232488804666582,
        0.03309714416161025,
        -0.15998830197203756,
        -0.08696212868476036,
        0.06786514997640519,
        0.002362008650439528,
        0.14130860562964098,
        -0.13130802609884948,
        0.06250683937470634,
        0.11845747335307155,
        0.041663873152510154,
        -0.037161592223072915,
        -0.08288293910268996,
        0.241773996283586,
        -0.16347406741444023,
        0.05957541858890981,
        -0.1665084521703138,
        -0.10186961420404848,
        -0.09983069014081354,
        -0.06832516121695884,
        -0.1613047167623381,
        0.11037577716076648,
        0.08168961214535865,
        0.053921152961238686,
        0.09415554947242068,
        0.11913545019295892,
        -0.031778956189379884,
        0.1818795051317919,
        0.02558084070980888,
        -0.035103518422643074,
        -0.042139531680178206,
        -0.035172420111618884,
        0.1864332406421532,
        -0.012900503063547713,
        -0.1069385296715845,
        -0.1149255564321437,
        0.08648045024870847,
        0.025137586668372878,
        0.00159892928590797,
        0.0660248133976087,
        0.07303845655065574,
        -0.08511032916256028,
        0.04900819411470745,
        0.013637219626017822,
        -0.16114558347071817,
        0.044597633577723166,
        -0.2287789200647631,
        -0.014708799770208177,
        0.0687078393618736,
        0.12030709385793771,
        0.08865998921186975,
        0.06459066160960401,
        -0.008535137282306446,
        0.08538213762517664,
        0.05012828318175007,
        0.14074337201976814,
        0.04265348529111409,
        -0.020002214723695223,
        0.07339682081010974,
        0.05594057478053011,
        0.12833532206203188,
        0.037631322446501754,
        -0.055120517262226484,
        -0.09951583963162403,
        -0.07832791265255762,
        0.004200495350450623,
        0.1978641071942174,
        -0.08105617438713493,
        -0.023221806265580736,
        0.024096344734508026,
        0.04270614859436835,
        0.2128909350746292,
        0.13397648246762112,
        -0.11200266996328928,
        0.024232093353348923,
        0.02036662271551474,
        -0.05619649297648619,
        0.23438957717781692,
        0.16073938918560018,
        0.08036362478532903,
        0.05424888016455542,
        -0.07695143373999207,
        -0.1176744557526498,
        -0.009908655517529015,
        -0.021310185111331363,
        -0.0018026896092453173,
        0.0706335104786393,
        0.042106304910428105,
        0.18430631210177706,
        -0.0235277009874831,
        -0.029981433663813586,
        -0.02329745275224277,
        0.06295034441209274,
        0.1805948749151563,
        -0.04474763842525016,
        0.10887652263842944,
        -0.2712713222774729,
        0.1281323094263294,
        0.10520075817355809,
        0.10982145176008422,
        0.029571450454592706,
        0.0725013711084608,
        0.023082364935173325,
        0.05596226591392687,
        -0.03425462733890436,
        -0.20557746139506813,
        0.07975504468289968,
        0.15687617531951722,
        0.0869217507409736,
        0.11663039566470028,
        0.07476071640109615,
        0.2578856601083812,
        -0.09726144574223133,
        -0.04010169689784918,
        -0.04071197196699773,
        0.14812109473291876,
        0.11268316590128999,
        -0.06620961732638597,
        0.07237877182279419,
        0.16902383728120654,
        0.029223461634767182,
        0.1034522641619262,
        0.059578003011060775,
        -0.03814461654087812,
        0.028070044206824733,
        -0.04155206717660693,
        0.11410940400296865,
        0.03232584282141355,
        -0.16153185281434704,
        -0.007469123359901216,
        -0.004212272797490594,
        -0.21914249548181938,
        -0.09696290733513753,
        0.10894345243746385,
        -0.02550296838874701,
        0.1674175795352843,
        -0.05138347865005077,
        -0.04833341888333573,
        0.17090678951184582,
        0.1084894752176182,
        -0.1604561668310037,
        0.051093323284868285,
        -0.10681955337784965,
        -0.29656926875848455,
        -0.03815484934741579,
        -0.1578507309712769,
        -0.17851129758930354,
        -0.1963172984636863,
        0.09589670541862717,
        0.004442148996365015,
        -0.12174202273812339,
        -0.09169102596237963,
        -0.10992265139445617,
        -0.13547412899122213,
        -0.17971456940826128,
        0.16157661945064378,
        -0.14898253354149568,
        -0.04122988441986969,
        -0.07567668754834951,
        0.08079849326386195,
        -0.07304866662950059,
        -0.05825873950816577,
        0.18840704680662382,
        0.08035670816930598,
        0.05333996307361348,
        -0.17144315274469715,
        -0.06372963106089417,
        0.059319226494912926,
        0.19647605069672225,
        0.15997287737642457,
        0.07348587045653723,
        -0.14219674119207099,
        0.12945938949666028,
        0.043050717187199765,
        0.05043041663082746,
        -0.08906836823861584,
        0.018681119617570158,
        0.028037282214392164,
        0.03851088214875629,
        -0.08091227238246285,
        -0.08791743399998642,
        -0.09340293303497157,
        0.010178677766902176,
        -0.0242319894952848,
        -0.12245840525865855,
        0.15072893826812075,
        0.07761054761433815,
        0.1633251294919774,
        -0.0006752234695462213,
        0.13858994192587284,
        -0.12293329805825423,
        0.014196834540065834,
        -0.020868748639939334,
        0.023646808314859526,
        0.025351346063714,
        0.16747375885045276,
        0.17535748100923435,
        0.017429197663582127,
        -0.09450420758716385,
        -0.09510764724486363,
        -0.014867855915848474,
        0.027944749092160746,
        0.00838217244886139,
        0.11935427270265965,
        0.026216334721669964,
        -0.17619060031164024,
        -0.12322086852462148,
        -0.23324539572894487,
        -0.13443876987603215,
        0.055931457234399594,
        0.02358205635114614,
        -0.10476583805431319,
        -0.014274863859450588,
        -0.18777013234037582,
        0.012417808905277663,
        -0.006200674111028662,
        -0.05144235827475294,
        -0.12832189067191108,
        0.05062263398507433,
        -0.09895949126996849,
        -0.028269807548442737,
        0.0553734128575403,
        -0.10101425277434117,
        -0.013966630693967953,
        -0.10662303410764765,
        0.09261966048249098,
        0.0365732328477834,
        -0.12520039450679588,
        -0.16309533245118837,
        0.05095134414803327,
        -0.03241485213084788,
        0.00041332126757460155,
        0.04900034854105281,
        -0.08081053182698143,
        0.11804089359394591,
        -0.02801919057119166,
        -0.2214060464416921,
        -0.1714126064773293,
        -0.06979148347989343,
        0.1384669230078267,
        -0.04985706873459161,
        -0.06255907666060004,
        0.09275938273123695,
        0.05476981007497212,
        -0.051431840285687924,
        -0.07458436009603377,
        0.05813494732338825,
        0.18575710245910437,
        -0.14950522389561882,
        -0.1102324691659028,
        0.07773339580544866,
        0.33981568152199687,
        -0.08197554338978708,
        -0.1744166259603356,
        -0.0858538083892267,
        -0.11363035298843427,
        0.05342332424686305,
        0.025088468955794314,
        -0.19216963392934727,
        0.0009812460028439589,
        0.03920802724277706,
        0.08263711804971098,
        -0.02298039264862605,
        -0.03699183057480961,
        0.04384849376365698,
        0.06266245339292198,
        0.07538728048444587,
        0.07978928444300613,
        0.03005297629050618,
        -0.0772226480988316,
        0.18429653243687982,
        0.03724954678401352,
        0.1264358611374353,
        0.1704524484713324,
        0.13168167518915458,
        0.0959471379029348,
        0.04239980587372773,
        0.018163531424185305,
        0.022495358366387472,
        0.12617622090185868,
        0.10443935353270664,
        0.11369783265542688,
        -0.05057096765929223,
        0.06837948353751953,
        -0.020996001908932818,
        -0.11655083423088236,
        0.2696876765854367,
        0.015233999663186214,
        0.1347879523973339,
        0.13188700185819716,
        -0.02126949582195636,
        -0.16731953932059082,
        -0.19464758906042678,
        -0.025736275206462232,
        -0.026757206931641832,
        -0.1334479078218837,
        0.0050782215563173584,
        0.004923828184976819,
        0.03240222927080405,
        -0.06718423987162131,
        0.09006902634291168,
        -0.12579160841714632,
        0.05678178567788867,
        -0.156506799057997,
        0.02897891835368264,
        -0.10520679479691619,
        -0.030363815805402213,
        0.11026229222854604,
        0.1407790289892229,
        -0.2777350485123538,
        0.09303057571345481,
        0.14878903790702866,
        -0.1895044887067665,
        -0.16491793521654052,
        -0.011156022293768766,
        0.07392835510527661,
        0.0057042266159111985,
        -0.07016862327327898,
        0.08012992370906893,
        0.10032873147265792,
        0.1539434469165327,
        -0.09052915208792979,
        0.0406298379517724,
        0.17519735132179376,
        -0.0442286431748342,
        0.10416066484554048,
        0.02887193903559488,
        0.004421488958735002,
        -0.14040046356753233,
        0.037559117329461246,
        -0.10749548236223228,
        0.10211954420549889,
        -0.07504073203992155,
        -0.02551698852068413,
        -0.08103028670204358,
        0.020808003189984936,
        0.0340730896403946,
        -0.04577258181012605,
        -0.000058601888933816026,
        -0.02107292036790357,
        -0.07064599515085129,
        -0.0034054455396519976,
        -0.012033406050793559,
        0.2726575659462032,
        -0.09607484442564744,
        -0.13811153265635623,
        0.14056231310795064,
        0.04823721410483924,
        -0.11737483747896302,
        -0.011691835735806549,
        0.09604137356666828,
        -0.15112627599378536,
        0.06792376252933253,
        0.005881172022934357,
        0.08277811185177344,
        0.11532078185333029,
        0.04474211190529148,
        0.03151282712745196,
        0.01288072657704963,
        0.03502387720917454,
        -0.13076135398308364,
        0.0796852990239026,
        -0.11143894242857351,
        0.022025950665029527,
        0.12314440539235633,
        0.09251631778877235,
        -0.008748733281668052,
        0.22907619559042325,
        0.03962653623221192,
        -0.15071369027496634,
        -0.12093597546489572,
        -0.10155811334129729,
        -0.011362424788838605,
        0.015640411530645503,
        -0.15122443908739716,
        -0.1693436939238689,
        -0.004694061035418841,
        -0.050873856006316005,
        0.03937193868453119,
        -0.014212074690910653,
        0.0701137065908807,
        0.17522059904331239,
        -0.10297274034286122,
        -0.11683136424291943,
        0.10563741831602076,
        0.0387977160508628,
        0.08853545537837702,
        0.008901462716742492,
        0.01642196447185467,
        -0.04367928315118647,
        -0.04833794956710879,
        0.008220157064803904,
        -0.11262085662163863,
        -0.02436827631724507,
        0.05728286675322586,
        0.03740754207861961,
        0.017281827600452913,
        -0.01004090161949975,
        -0.21673123880038606,
        -0.08334396841307799,
        -0.14013867677480354,
        -0.10674605559040243,
        -0.09493269424545626,
        0.09213844506738668,
        0.12036879554261312,
        0.14942680330701502,
        -0.011394147985622338,
        -0.2515899843670904,
        -0.059995415382036794,
        -0.050992034130976804,
        0.1393773113245607,
        -0.06568031718788257,
        0.14744072313408127,
        -0.23981590903563185,
        -0.03897397337099077,
        0.04849760959610531,
        -0.0029781061367817017,
        -0.17663638572837653,
        -0.163450081619758,
        0.3213946601096293,
        0.09975062967799282,
        0.07706581987694341,
        -0.028964377153849277,
        -0.049786832049864546,
        -0.003117967991195011,
        0.018930727193229323,
        -0.07406394339100285,
        -0.05899634536340665,
        0.09459238719366221,
        0.06513874623227585,
        0.08992327086042766,
        -0.03732524702222177,
        -0.06324833917235691,
        0.08327730952004343,
        0.09036545273868711,
        -0.0015418248712182072,
        0.04013029359309939,
        -0.009703521867249522,
        0.10582074523452699,
        0.09792049132894884,
        -0.29570761582179483,
        -0.0721334791266181,
        0.09973498193360288,
        0.04457532114978731,
        -0.14249925976520084,
        -0.0004113834422895847,
        0.16790278842629036,
        -0.06842535691758869,
        0.06671909583722715,
        0.10124127949219543,
        -0.004886499527116792,
        -0.08948256968779052,
        -0.09647415940201215,
        0.02522164004546314,
        -0.007463341129814949,
        -0.011628765959735858,
        -0.1312513539234695,
        0.14734466137337296,
        0.1743859654588774,
        -0.037372802834122545,
        -0.08736973796972594,
        0.1165406632250987,
        0.10937581027964356,
        -0.06594271642000821,
        -0.020390930856385284,
        0.049566099615973455,
        0.10646241117219286,
        0.12548742891948989,
        0.034232340530164745,
        -0.09984807291811917,
        0.07772069916464873,
        -0.032505011595542414,
        -0.09391816618571419,
        0.10119685342720908,
        -0.02825765372902887,
        -0.2215249197936266,
        -0.07811131048172347,
        -0.12870730399343216,
        -0.16353384515143585,
        -0.030401844464834207,
        0.06340433672062301,
        -0.04261858905779349,
        -0.09202822612892844,
        -0.03554918309529451,
        -0.01836896183175361,
        0.12802666886197972,
        0.03912376745399975,
        -0.031076001038021443,
        -0.11542552371088578,
        0.04995713600504422,
        -0.09387111914208479,
        0.10784164500415114,
        0.01558153027890986,
        -0.0655464460383815,
        -0.06673144692971526,
        0.13450913422970104,
        -0.12867934882078594,
        0.13216403091569143,
        0.08276389615084927,
        -0.1936255018525167,
        -0.008239781143004207,
        0.13296858291225058,
        -0.10358583142154305,
        0.025894459923195688,
        0.06137754559724015,
        -0.28970541389392784,
        0.0032622081364782063,
        0.0765152939323824,
        0.19157869229210425,
        -0.004217925832634511,
        0.008262310968833434,
        0.047808011142806854,
        -0.05024216493857953,
        -0.10360853652160602,
        0.16812248260834375,
        -0.2082522167757293,
        0.14700415620665805,
        -0.1960554314409655,
        0.027044459251162688,
        -0.144490130834719,
        -0.12461080241762555,
        -0.1813395323563237,
        0.27509229810822317,
        0.08238061182343102,
        -0.10480543674379218,
        -0.12641794433431144,
        -0.08221613330325114,
        0.02867407323044821,
        0.06444691362676666,
        0.012051879364661462,
        -0.09964798940665878,
        -0.027647807967072502,
        0.1479369308145453,
        0.031332209545280765,
        0.02905562988995897,
        0.013069263007292359,
        0.2040045399567547,
        0.17854305484114721,
        -0.17124928003459178,
        0.05261018463211757,
        -0.07947593174605355,
        -0.012007871825792351,
        -0.0037267766991520494,
        0.16657737503536785,
        -0.001415321899905207,
        0.001387245750715234,
        0.04656109126754142,
        0.10295750118661232,
        0.053717367958575776,
        0.2252037213418157,
        0.18685993937143205,
        -0.09953007919291704,
        -0.09236126031103566,
        0.24848880948720636,
        0.038485787359773586,
        -0.07115267831532167,
        -0.10531855046072948,
        -0.004592085321729776,
        0.043304506126615294,
        0.006922952790353965,
        0.12436725415107469,
        0.11959166085831087,
        0.08326657139643562,
        -0.011485693966047705,
        0.01934100228768734,
        -0.014929776465272245,
        -0.12358040637812748,
        -0.11799449736895412,
        -0.10909057448301317,
        0.08722856863237538,
        0.098058580756335,
        0.019646290727896823,
        0.06441890354646214,
        0.10608514636437469,
        0.0988421824089395,
        0.08922166856123963,
        0.09518067066326726,
        0.13252240162031345,
        0.048484997655741394,
        0.20271236949209423,
        0.03887499661608676,
        0.09623725203544377,
        0.2209568842074667,
        -0.1003197561607779,
        -0.1817778107725731,
        0.06238519387839453,
        0.010924655364574994,
        -0.08919571633732956,
        -0.24129336186103642,
        0.08558146096065242,
        0.0531447388839861,
        0.09570306238094722,
        -0.07306251122614336,
        0.13557984521291003,
        -0.06424302798896818,
        0.10058464839115877,
        0.04630735604076134,
        0.2633820713843189,
        0.03985374494010332,
        0.11589228903559445,
        -0.02910904959356998,
        -0.18732436504405142,
        0.05005734911494386,
        -0.08565879773275582,
        -0.0714455791169391,
        0.09222240551172801,
        -0.03392517174276055,
        -0.02562189451762239,
        0.006806734076659765,
        0.10566077506040564,
        -0.14011582276152018,
        0.17061116389181435,
        0.022543308851982767,
        -0.18688475221204034,
        0.010832233500083381,
        -0.1712452557611669,
        -0.06906021896146035,
        0.1173873127769696,
        -0.005210461560700038,
        -0.37256471781290174,
        0.14284932194878286,
        0.13644700044600303,
        -0.0511382870989643,
        0.0823143416462266,
        0.06968049830373327,
        0.10317980944243578,
        -0.052632636673847384,
        0.0030118191524705355,
        0.10475100784854297,
        0.03737755366538718,
        0.03417446551991,
        0.10085727971623998,
        0.05788569699653677,
        -0.22708326576752474,
        0.0563003715430077,
        -0.08678417890428154,
        0.043346729076028954,
        0.001215791547908911,
        -0.050444499235479834,
        0.10045100139541846,
        0.0032095159010979255,
        -0.08083795242239794,
        -0.07853255349073848,
        0.1573498748508535,
        -0.0916276423961119,
        0.18271083310190256,
        -0.08563775186753605,
        0.0692431118557767,
        -0.04532775396011866,
        0.0025836038450015586,
        -0.07820824789055371,
        -0.08402416743251113,
        -0.04280568216793303,
        0.10941654241606387,
        -0.08028240660627418,
        0.06786325978096557,
        -0.03639507442837056,
        -0.04197165515600194,
        -0.020413551962191356,
        0.23457076096452883,
        -0.1087694508751182,
        0.1944930023007571,
        0.06065139690595997,
        0.0009421144580844427,
        -0.015777464931115148,
        -0.08042523826212038,
        -0.013095204475575915,
        0.04111174654421925,
        0.20492312761447878,
        0.039940962548992084,
        -0.15057927839698368,
        -0.017338521305563157,
        0.07038184222069867,
        -0.018344767851533626,
        0.17956973500511667,
        -0.10743622470897245,
        -0.006125866238616787,
        0.13671630430175225,
        -0.21503308604580154,
        0.021086619838020473,
        -0.0756767389281253,
        -0.1652758521344158,
        -0.10806755874786053,
        -0.1332218374314525,
        0.07910327395265475,
        -0.1070735330815257,
        -0.21207943298898962,
        -0.16929912590124147,
        0.040681510917483045,
        -0.008369730073207645,
        -0.0438968455170694,
        0.14231527761968457,
        -0.1155090916044083,
        -0.1089838684981703,
        -0.047578300510144556,
        0.014061507469356443,
        -0.034131558289892894,
        -0.22493613631778625,
        -0.14708888781940047,
        -0.15562179594935183,
        -0.0340456067944502,
        0.016208450834276116,
        -0.025806530929390805,
        -0.025182096116695533,
        0.047954471772461635,
        0.06621444732089361,
        -0.035111881943547495,
        -0.10453405544913352,
        -0.11363751973019637,
        0.08440483245461802,
        -0.05488854035110082,
        0.06621014778638382,
        -0.19258460110677264,
        -0.12009281702591548,
        0.0013449203481676285,
        -0.02440441880496203,
        -0.23663273866080134,
        -0.11126218567254269,
        -0.014082610402877624,
        0.10458188195481526,
        0.02303766122411865,
        0.16276378060320343,
        -0.12577319417059918,
        -0.07557563843916203,
        -0.07107979792918748,
        -0.079852604849422,
        0.09187168922332042,
        -0.08067478426602007,
        0.024376309419978957,
        0.07622611076539522,
        -0.07221280055685944,
        -0.06510726898649452,
        -0.07211172169164029,
        0.08056163273244038,
        -0.051875817171442316,
        0.16724597468458438,
        -0.09375862475765596,
        0.05279689958574808,
        0.09742510195973161,
        -0.10597667518556679,
        0.11670904609631721,
        0.046821963065418984,
        -0.06570641812758397,
        -0.11815300901739904,
        0.0549353577126968,
        0.24322896959804763,
        -0.05285357206713609,
        0.03393545190817896,
        -0.04918979616252335,
        0.021356056880262857,
        -0.09131841572193668,
        0.00945093340500112,
        -0.18455335990368066,
        0.011370078504849087,
        0.009867460710050893,
        0.00035482724386576883,
        0.0008186826335970125,
        -0.14583036794867582,
        0.05017526524899839,
        -0.06855781914835948,
        0.1384040105596154,
        0.01633585407459117,
        0.02314413760382856,
        -0.1478830189481861,
        0.10317886829156585,
        -0.06076447645621027,
        0.08861946994133482,
        -0.14126702749126313,
        -0.17223997395409094,
        0.23351907586989254,
        0.0267661570102331,
        0.02279202073240571,
        -0.07976280955101879,
        0.07375305412821805,
        0.05414495308610843,
        -0.039205903553909974,
        -0.04892630907898663,
        -0.10490988028874314,
        0.07412630038357393,
        0.03819222783252052,
        0.12024908514845722,
        -0.15177117569224727,
        -0.011281758442030686,
        0.09798694925310684,
        0.030112512959829935,
        0.1100159079862153,
        -0.0010211025474418946,
        -0.010500720352281707,
        0.05035522392371592,
        0.022367376101822753,
        0.006056049492851859,
        0.16282272969799452,
        0.11167496524368965,
        -0.06356298942886153,
        -0.06308406565822922,
        0.07370382823460517,
        0.08629951615111389,
        -0.028288898271519675,
        0.08015372623481329,
        -0.04970842096089527,
        -0.09698943162371147,
        -0.11061730803293557,
        -0.11264288008822021,
        0.1088878660273778,
        -0.1037212536577817,
        0.014174730507613878,
        -0.30826229615632256,
        0.06699327974980056,
        0.15048053643102377,
        -0.1470111347389833,
        0.026063577723030962,
        -0.036615459637081946,
        -0.008552963988242472,
        -0.021434347760160517,
        0.06861483800310691,
        -0.16835431233920753,
        -0.025635822031320504,
        0.024159944085116652,
        -0.005302339790792097,
        -0.15891290524015395,
        0.04886705448806592,
        0.11983163191135593,
        -0.3022433463065393,
        0.12916608585347547,
        0.061565469677665,
        -0.1023670448994552,
        0.12453001827340585,
        -0.15322220424819782,
        -0.041649871217490815,
        0.016437898399086236,
        0.06427541833029457,
        -0.22143789037034775,
        -0.06954323960857055,
        -0.0024969540367407186,
        -0.08126024163408328,
        0.15039098100168913,
        0.010915309955430485,
        -0.09559965548296916,
        -0.0024343878043604572,
        0.09157354723136452,
        -0.2087606328262085,
        -0.07279384767139611,
        0.07035870088087813,
        0.0983465940140564,
        0.08264454831005867,
        0.05717542200740568,
        -0.003751071970255042,
        -0.1740264639458606,
        -0.16426358239840871,
        -0.06537740070381935,
        -0.23111421825903902,
        -0.29411406875203744,
        0.08083186955449373,
        0.08562723435158717,
        -0.08122218143858226,
        -0.12476979040620123,
        -0.07535309214821188,
        -0.16305219438569735,
        0.12130752418236279,
        0.08450016020262732,
        -0.01598195094257346,
        0.033833430193004325,
        -0.06223089838657876,
        0.06596396574497998,
        -0.06770979691333039,
        -0.14713604430387112,
        -0.10181296406964795,
        0.03660894577777515,
        0.18534076680643782,
        0.26556658975631675,
        0.017005606528045374,
        0.028744704614504048,
        -0.07699129165089358,
        -0.19759641607048595,
        0.01852876947489528,
        -0.07662714895605029,
        -0.010830041462943515,
        0.26735962741914504,
        0.0307617524813743,
        -0.07188621811510557,
        -0.007301860552717529,
        -0.037637273862083626,
        0.001645362262141156,
        0.2663807091509249,
        0.045290454347729596,
        0.109429844473238,
        -0.09980325970144295,
        0.09465495560221482,
        0.1772482407720478,
        0.00943181828340384,
        -0.037919622185561795,
        -0.03036917467708923,
        0.034940050133465565,
        -0.016805196830128134,
        0.08862382986487269,
        -0.05606382288901852,
        0.0864415450695957,
        -0.03617569818328971,
        -0.03343971630421571,
        -0.10642349056713978,
        0.08049414541101879,
        0.11263050341158934,
        -0.044618408530865815,
        0.05957212144961459,
        0.005352892020753735,
        0.06356156232854145,
        -0.10833358825474286,
        0.0007090229138646644,
        -0.03829502178301515,
        -0.005588765243096367,
        0.13527801644822085,
        0.02672398159844661,
        0.07677504801073146,
        -0.041599186982649305,
        -0.12420622255731086,
        -0.1766261489511678,
        -0.05156554319337341,
        -0.1170805520321217,
        -0.18451032285565977,
        -0.10911419236608497,
        0.06229014142856705,
        0.07200506327308263,
        -0.11746635051466503,
        -0.015513174604001265,
        -0.04445092222119931,
        -0.09287932751552506,
        0.11696554011490838,
        0.04293687444258337,
        0.03548052870160141,
        -0.14866693757649777,
        -0.07901149868205257,
        -0.11138126652129218,
        -0.06931257795951626,
        -0.02446896317321959,
        -0.0962417620986773,
        -0.0026226883132887146,
        0.002788536046655693,
        0.060039399684102684,
        0.0805138899469563,
        -0.06589027941649067,
        -0.06688554428691736,
        0.014018784038661636,
        -0.024918529466557725,
        -0.02405667233059615,
        0.022853817999860908,
        -0.05574903917066368,
        0.005994889495218442,
        0.021579523811805456,
        0.033167067732946615,
        0.028896277256090654,
        0.0103531998283331,
        -0.037592202611272184,
        -0.09769283481960805,
        -0.24966157660965815,
        0.20825221433840302,
        0.023469846209376595,
        0.06920902779296688,
        0.11684789435757043,
        -0.06271709315486071,
        0.06767057651163359,
        0.044131947341789435,
        -0.23082732243182266,
        -0.04610900782250174,
        -0.07596573380940044,
        0.13160182748739327,
        -0.12284846235088925,
        0.12310631618703914,
        0.031048924040313276,
        0.04576688603714387,
        0.15926023583050838,
        -0.03829850404774122,
        -0.028685443361206694,
        -0.2127595083027424,
        0.054618786852212046,
        0.27243138986446047,
        -0.02058103046681547,
        0.05323545190555276,
        -0.0015345631587027678,
        0.26890952823687886,
        0.21984203850572695,
        -0.059963278193150574,
        0.08220811344391624,
        0.03910266982911641,
        -0.060358250600518235,
        -0.06020734339154813,
        0.09115125106694037,
        0.019740895058795935,
        -0.10113917347035874,
        -0.011185636451072165,
        0.041996424539309296,
        -0.09667260849210833,
        0.15327757486640767,
        0.11277469111271743,
        -0.0916045408992062,
        -0.06217464686169052,
        -0.17920157449932175,
        0.043079532715771744,
        0.07731112933781394,
        -0.16130540181040756,
        0.04581170712296288,
        0.0035396948435765237,
        -0.10868063461769566,
        0.0878489730514648,
        -0.03940677613649359,
        0.19562336608255518,
        -0.014849902189142384,
        -0.0945443479522799,
        0.00045028228592029225,
        0.046523242023881924,
        0.0839155441773993,
        -0.10088321229704632,
        0.25140219033747674,
        0.2292493305673854,
        0.012233559805105916,
        -0.052950971260279735,
        -0.0473930248849016,
        -0.10656088067714473,
        0.09662974971060041,
        -0.08411375110506898,
        0.038084801323948744,
        0.43231137826601457,
        0.03798825381811269,
        -0.05943473315175286,
        0.17028720653440907,
        0.126554394690104,
        -0.13171001090241394,
        0.03516337018234098,
        0.04291736081212558,
        0.16254955412709718,
        -0.0270414383989801,
        -0.08860269895365107,
        0.08304580023366734,
        0.045680401071780626,
        0.0427087823506361,
        0.12884890725258857,
        -0.1460158650937169,
        -0.12552429919884056,
        0.05122338459774585,
        0.27478869867705064,
        -0.10975011327999637,
        0.00019879156455903526,
        -0.020240701232152023,
        -0.2155001297455759,
        0.00933880112713523,
        -0.13389440759405505,
        -0.055744163218185275,
        0.10020141301821964,
        -0.11733102306634129,
        0.10080486525770196,
        0.04073299185231699,
        -0.057278121103265446,
        0.03368095952375562,
        -0.19306180331476644,
        0.059315404401246836,
        -0.17196624247391445,
        -0.142040897937059,
        0.025562712224062308,
        -0.15515820451505086,
        -0.024319459070166378,
        0.13699888581852207,
        -0.03295983366961225,
        -0.035792074588618196,
        0.02577633664533903,
        -0.1251168696547789,
        0.06358769577514671,
        0.0082685149796747,
        -0.13837832904658448,
        0.24921613311385377,
        0.13416934668084407,
        0.1585057939057377,
        0.06687593136247838,
        0.08776949206015919,
        -0.016396008045789924,
        -0.14458797445676688,
        -0.14520492572549804,
        0.09131191724302384,
        -0.0897388333998242,
        -0.23883872769312128,
        0.014349202327552147,
        -0.08905225578493102,
        -0.15549740716535987,
        0.07114701386984391,
        -0.09526876470028361,
        -0.10640327570679364,
        0.005027087553760391,
        0.08408990484907869,
        0.06712907744113739,
        -0.1646286819845183,
        0.13928494757473928,
        -0.1138128468538465,
        0.20907261692610107,
        0.16762070371192136,
        0.04264057083143732,
        -0.190097966217531,
        0.0723842529980249,
        0.009625316942272059,
        0.05087171190653488,
        -0.22146667676942774,
        -0.039967340202438535,
        0.05917643207340315,
        0.015499981544842426,
        0.07728990115041279,
        -0.17127367378828579,
        0.12122519446306321,
        0.06748272653112763,
        -0.1574636641245309,
        0.12285098770996843,
        0.12364562835019252,
        0.13591685691501648,
        0.10177211923901862,
        -0.014404661501307783,
        -0.08395483579467901,
        0.1355932751551952,
        -0.05439949204130572,
        0.015647112004398164,
        -0.017438378920430413,
        -0.016591379351544384,
        0.13603681598711953,
        -0.2845232739712739,
        0.12944578828754807,
        0.034262270223749815,
        -0.16475023424936508,
        0.13412231493314627,
        -0.23389036308144795,
        -0.012536604567047112,
        0.029554176841029404,
        0.059692361995011795,
        -0.017870301308902204,
        0.07063708109292197,
        -0.07620876107983268,
        -0.10831174198206303,
        0.016818391266598558,
        0.05241031130385582,
        -0.047275224596051414,
        -0.03788830533209552,
        -0.13862861219346717,
        0.17228025962880514,
        -0.008380618615416509,
        0.0023078278196284373,
        -0.10901303160775691,
        0.06922455098140812,
        -0.10334462876036336,
        -0.19147722386649152,
        -0.11471313996896473,
        0.06426872137907047,
        0.1393721366891359,
        -0.20280205197239787,
        0.07181030173790556,
        -0.07318370037705156,
        -0.010943468415614523,
        -0.06267439491404488,
        -0.011123833281268066,
        -0.03620811726034868,
        -0.01040105413973593,
        -0.0008405915364328653,
        0.0022685439405022646,
        -0.007467934181414881,
        0.13572019861040127,
        0.1427279389730923,
        0.08288059259204571,
        0.13986627755987924,
        -0.013824350943568256,
        -0.0733152961491174,
        -0.24805334430548523,
        -0.041238778345211266,
        -0.023179897691398377,
        0.11652070264130131,
        -0.2394989081044014,
        -0.12407834002255212,
        -0.24134035403724236,
        -0.01301308621691398,
        0.04979670431238208,
        -0.2216233505542432,
        0.1365460146106096,
        0.09803531688245438,
        -0.0683162448686635,
        0.02099311409338677,
        -0.040647258801379406,
        -0.05229610944452083,
        -0.1870385804050664,
        0.09851093462931362,
        -0.09885786409854079,
        -0.0180488717910233,
        0.0022647714127198354,
        0.06790321171569684,
        0.05189034744367222,
        -0.015277551004683013,
        0.19738014724880085,
        0.00033690544071067436,
        0.09632846590320161,
        0.02227652562232582,
        -0.12298920837911179,
        0.1513771145796502,
        0.0985950382306318,
        -0.027107800996158858,
        0.03863394767913219,
        0.0748849679291134,
        0.1532532504034702,
        0.29853499026979285,
        -0.16081976975215134,
        -0.0019643883523862973,
        0.028087383321032635,
        0.006488151329958632,
        -0.0758185621575461,
        0.09536672419387801,
        0.007147009455170837,
        -0.24461468793837887,
        0.060905675327794055,
        0.07607558926791012,
        0.20680901059913298,
        0.05655253827855938,
        -0.14557645390384913,
        0.16213758040287127,
        -0.03359876191096771,
        -0.0362919408004217,
        0.07881772263349399,
        0.09676681953394915,
        0.045320548492824166,
        -0.14678465982057487,
        0.2220390293055496,
        -0.07436211943190642,
        -0.1512197864284297,
        -0.02619550200854146,
        0.04040273225734129,
        0.08673541820019123,
        -0.02670625060985963,
        0.013285404704652816,
        0.03893975565606283,
        -0.009356810010182104,
        0.1906070062340173,
        -0.013022609093356159,
        0.017963236499076406,
        0.025609819658676435,
        -0.01909222715777194,
        -0.07120479523930977,
        0.03207190372738282,
        0.03777689987724115,
        -0.03755036473855691,
        -0.08516538953664239,
        0.08136201960193036,
        -0.09217256255477023,
        0.07675952406578958,
        -0.018285864183552603,
        -0.17360497620800827,
        -0.0467762147622436,
        -0.07201757693279416,
        -0.1388121544007507,
        0.2982754539973071,
        -0.001146694144050231,
        -0.03572116627740908,
        -0.0891416997339237,
        0.026840265307912354,
        0.16259119447960582,
        0.08305627186753957,
        0.11282153411268836,
        -0.05014419654735123,
        0.07163776121437773,
        -0.07816505168325288,
        0.22864725790637672,
        -0.1299320809201893,
        0.20468292598597,
        0.014620310958177367,
        -0.20237691406793484,
        0.13584980772955937,
        -0.0710885510454449,
        -0.11651442787517419,
        0.13487150190664146,
        -0.12261806916356059,
        -0.04890436961208924,
        0.013107806930220022,
        0.015815164326911327,
        -0.11078484391516731,
        -0.16224609492047992,
        -0.0227003851051259,
        0.21977746848115434,
        -0.06799734314740384,
        0.19600402169478745,
        0.07838753568966737,
        0.035076446904975106,
        0.04945722868181906,
        0.009404868154478602,
        0.07616151375014416,
        -0.25268583982868403,
        0.14445321422215937,
        -0.007217102329064554,
        0.11578681558647942,
        -0.005510568134059297,
        -0.003414933183407378,
        -0.26917927345475334,
        -0.06288723492007936,
        -0.184217329612293,
        0.003061557218133129,
        -0.1795492467154238,
        -0.05036229720859428,
        -0.04224785577884627,
        -0.19358365257761798,
        -0.039300199588235794,
        0.16330252324529898,
        0.025967105590366604,
        -0.0581823347218082,
        0.05989658036027903,
        0.01829344448432914,
        -0.03590060893417684,
        0.07378030152357333,
        -0.16079571665547868,
        -0.049946523063967053,
        0.15147399684427257,
        0.05592883561879602,
        0.10723880588789753,
        0.1527514824628293,
        -0.21559625855620762,
        -0.13335836976395837,
        -0.347777678255451,
        -0.02522371563590868,
        -0.21150151195253214,
        -0.0535753179220592,
        0.02339541565802715,
        -0.15557133599130016,
        0.01147451775714512,
        0.10704567819344094,
        0.16653798810303205,
        -0.06838074946733765,
        0.06231936777696469,
        -0.04821083164547005,
        0.0445768516304821,
        0.13231701071757881,
        0.014250761492922249,
        -0.05075125974716755,
        -0.08049704436046652,
        -0.14019034005652592,
        0.1470380531508733,
        0.20103024104379688,
        -0.10814404205410165,
        -0.07197134477760322,
        0.14371202724700904,
        0.0776086727171251,
        0.2097472585151266,
        -0.07212217228558791,
        0.10236286421264697,
        0.09267513088310872,
        0.0077408761974020945,
        -0.04255445921224084,
        0.014259796446131491,
        -0.040532678163102645,
        0.10027063679696273,
        0.13706075175066537,
        -0.015970951470621268,
        -0.07752786286063229,
        0.1616272427907442,
        -0.08631529820379316,
        0.32618663879215243,
        -0.06551036709078253,
        -0.09832242115304467,
        0.009253915301488287,
        -0.205268771805533,
        0.06747252393628454,
        0.05073033947801098,
        -0.0647889360869807,
        -0.07821632885927653,
        -0.19960463812806628,
        -0.0857761433640523,
        0.050046778278621015,
        -0.2575773661490881,
        0.07000267948112655,
        -0.054353715922653985,
        0.1125154722883479,
        -0.0772374332794443,
        -0.10745357571835785,
        0.05505697860084585,
        -0.06662498134742689,
        0.11074401062021412,
        0.019420605661840246,
        0.04847996219292065,
        -0.06344877224109642,
        0.11660635030667005,
        -0.057022123046263064,
        -0.06034348285191831,
        0.0028813357914166857,
        -0.040873139461059464,
        -0.013208469720447003,
        0.03873712184955096,
        -0.3813061824292082,
        -0.012925464960607312,
        0.22352214873357107,
        -0.1370314084108666,
        0.021503187601473295,
        0.03131411877582306,
        0.019081396173603382,
        -0.005400644866551178,
        0.16860041366012765,
        0.013081578295054203,
        0.07138167749071637,
        0.061481287974498235,
        -0.008272728346201892,
        -0.10265883469354019,
        -0.0999354154418631,
        -0.12042496708138078,
        0.02443473010715911,
        -0.01094237709670281,
        0.3554503146257842,
        0.11477943518098702,
        0.09934345335959989,
        -0.150246795172307,
        -0.018223772479999976,
        -0.09448133503872813,
        -0.14729577851465123,
        0.33477913874861714,
        -0.15978776677736448,
        -0.0200435826921758,
        -0.14337682589171014,
        0.03576837544042962,
        -0.0003584187419011042,
        0.06924918547065083,
        -0.09189462940179394,
        0.21868528068949394,
        0.2152275771650419,
        -0.12203050761175636,
        -0.03168048350126846,
        -0.2262774372666161,
        0.023533635019134337,
        0.0710875315348903,
        0.04417151330269864,
        0.13113952134432458,
        0.1446423923516555,
        0.010828708163602284,
        -0.015478461334744958,
        0.114004108450744,
        0.09395563317170413,
        0.09570859769353737,
        -0.06015193287025505,
        -0.16384200900588308,
        0.03325022331645582,
        0.0547762406166235,
        -0.08289236339626559,
        -0.008746249330587364,
        -0.03956593150768859,
        0.05590568040790961,
        0.1934745431182394,
        0.0888718597198799,
        -0.24825600478766566,
        -0.07617592196381394,
        -0.05114089689521958,
        -0.13915603492911674,
        -0.06392828382791442,
        -0.025150465412148697,
        -0.18576263935779858,
        0.08501499419423535,
        0.06780153128245976,
        -0.061218657917816825,
        0.038388382613548926,
        0.13033588542511354,
        0.11207891888856503,
        -0.044705255120848275,
        -0.19318084740352293,
        0.16234195043253366,
        -0.10040754260792567,
        0.008935017259547212,
        0.0438486163664963,
        0.12762987922486896,
        0.11450115013165772,
        0.12329706534253208,
        0.0769691635090034,
        0.13470546725562318,
        0.010268421416975078,
        -0.0454271515108345,
        0.004644893687307069,
        -0.1425413598960465,
        0.12742838570956097,
        -0.021698581779005716,
        0.07839466885839269,
        0.027072597985045042,
        -0.04653162360081419,
        0.026092415029198072,
        0.03612774623199765,
        -0.04216026027204563,
        -0.007766669134092585,
        -0.006246418172455053,
        0.09159705654503907,
        0.1434682989933466,
        -0.13497830329374066,
        -0.13889264450240116,
        0.12722908994753948,
        0.014873949462098794,
        -0.035217660893824096,
        -0.15915339638637843,
        0.059151683912426825,
        -0.1211689166500915,
        0.040625239167568,
        -0.020805787965351995,
        -0.035413404409451045,
        0.046769771436166334,
        -0.04915128019440104,
        0.08905863336265604,
        -0.011113926922262641,
        0.1761421035143897,
        -0.15178314655052833,
        -0.028156555864009544,
        0.050752870317729834,
        0.032819714674239324,
        0.09261219942347021,
        -0.2277144328524191,
        -0.16479796938342278,
        0.03892913259120943,
        0.04410650191182025,
        -0.23528084977114222,
        0.028667989334891283,
        -0.03212126197637872,
        0.11831396506677519,
        -0.03699957796959411,
        -0.08842684005957945,
        -0.0057912327879949006,
        0.007648151336016639,
        -0.03274921820694737,
        0.025045896485181022,
        -0.3000085345409473,
        -0.1617652121161827,
        0.06594993106902784,
        0.03232576888409252,
        0.03010508063529839,
        -0.18544306544564948,
        0.06848632107402444,
        0.09365023715516729,
        -0.050826814419697344,
        -0.03727670401383452,
        0.11369786645746323,
        0.2817098055646521,
        -0.0029561522126722974,
        0.02251217049956398,
        0.09347891867062377,
        0.12937947440705733,
        0.062176799174153745,
        0.048864375340736954,
        -0.06835318156182334,
        -0.04740127744914792,
        -0.13841878730377313,
        -0.14186566841274892,
        0.027295498513129766,
        0.051231998573723625,
        -0.08356946010308193,
        0.1754947996972062,
        -0.12064138331078307,
        0.09601681632830249,
        -0.06519971900246369,
        0.21751014217729323,
        0.11303245572534702,
        -0.09823385593801041,
        -0.2983111241859554,
        -0.05355586603682916,
        -0.0011776557160432832,
        0.03560836636431298,
        0.00435118532802783,
        -0.015604133918331571,
        -0.04222280002890748,
        -0.006113374932630628,
        -0.2403360819409983,
        0.07201248249715866,
        0.19589742644384633,
        0.07027888791861316,
        -0.15319025533975594,
        0.07294072303762633,
        -0.07365030216619756,
        -0.06321246647648239,
        -0.11721422886396471,
        0.029753408773643533,
        -0.05496222934747918,
        -0.06772680308260398,
        -0.05693567287815746,
        0.053143968773803674,
        -0.013360181390754006,
        -0.02456932716102398,
        0.08476495871568128,
        -0.17367441424326915,
        -0.17897768830738675,
        -0.14238752906066712,
        0.13640890041908352,
        0.06377647521553152,
        -0.44710016417049697,
        -0.12501465049066152,
        0.07162870743500682,
        -0.01867684699417206,
        0.12042840160361305,
        -0.030389784841853607,
        -0.032264076687842785,
        -0.0023927293568612525,
        -0.04717376351698253,
        0.028292705290770145,
        -0.15778056655846828,
        -0.07652425120131494,
        0.0510503173285016,
        -0.08793700559870916,
        -0.0035648760149347546,
        -0.09953845401737954,
        0.046427445797172874,
        0.0009759546484142279,
        -0.04694879982126944,
        -0.18038851839883044,
        0.0980786849159839,
        0.017976072937960975,
        0.01267475223178407
      ],
      "b": [
        0.013540422092735292,
        0.013314960245470754,
        -0.05218588347721238,
        -0.008243342726001097,
        0.008305699365525615,
        -0.005469209836621497,
        0.03496699350276343,
        0.003953653505501322,
        -0.012416202519243854,
        0.016590895929149273,
        -0.005705220733458668,
        -0.013248976883372,
        -0.0078019838731754245,
        -0.011976334295395897,
        -0.0161199109732725,
        0.020190767658706858,
        0.02669470987202558,
        0.036277449518086584,
        -0.007274710078705905,
        -0.01919817247244784,
        -0.0305399443642743,
        0.0018185581707427553,
        0.013018163525198535,
        0.017307577045994848,
        -0.0029130229547661575,
        -0.021298194673186274,
        -0.02032550811834864,
        -0.001986861698634418,
        0.016295404975977656,
        0.024439605470649967,
        -0.01209989173214129,
        -0.027432661054951648,
        0.015752968163382692,
        -0.03614169181569439,
        0.0058593437053919215,
        -0.018052616689033723,
        0.0016915931375371684,
        0.006162974232940835,
        -0.0003006358495776739,
        -0.009490269915440943,
        -0.003358091419537075,
        0.02992717133680971,
        0.013904874281581523,
        0.016909682437163235,
        0.006650548348695819,
        -0.02458873350891485,
        0.018698044771072005,
        -0.01024644307095192
      ]
    },
    {
      "in": 48,
      "out": 24,
      "w": [
        0.15673230569425584,
        -0.07565897695570892,
        -0.07125737336507236,
        0.012759743440649203,
        -0.003217880466705651,
        -0.005997670955140202,
        0.11565856343618651,
        -0.1165018980784289,
        -0.13071162267142386,
        0.023783511659807906,
        0.13692965645069757,
        0.04844683070140982,
        0.07593344791587951,
        -0.050410471860260986,
        0.16407627434359348,
        -0.16770058825819095,
        -0.13903730085501234,
        0.03423758904772392,
        -0.22240312973542445,
        0.17668038537437938,
        -0.08277764282504252,
        -0.044289155743202906,
        0.2731740268782779,
        -0.006069075736619477,
        0.041557904639141885,
        -0.12457567697041616,
        0.05473261445347256,
        -0.1920945796804646,
        -0.10814087732088298,
        0.08516426798556347,
        -0.11367053837964858,
        0.17185681090871968,
        0.12248897986563471,
        0.1693649972561197,
        -0.17816591304207657,
        -0.1331312429619236,
        -0.14298223110418873,
        0.13502724180774361,
        -0.09060330645513742,
        -0.02376561015706225,
        0.019321008858065463,
        0.3286181770740515,
        0.18629662823268442,
        -0.11987451237744935,
        -0.18775089409027573,
        -0.05470935569214467,
        -0.021763710311720245,
        0.05945459071123509,
        0.014360046232515066,
        -0.04175220796029618,
        0.13110690003223213,
        0.05826441990160028,
        -0.028852924279299363,
        0.08907695984244082,
        -0.08242132818079584,
        -0.2655600302824436,
        0.027533045021225,
        0.1606694249458574,
        0.41938183516077576,
        -0.08609414425675908,
        -0.0549174045924666,
        0.019776551672398262,
        -0.2057589429558599,
        -0.19617108455664317,
        -0.07296246492954116,
        0.25314378554257094,
        0.2314747586851272,
        0.05288598217983911,
        -0.023291112186345712,
        0.20889259769086346,
        -0.08498338034111502,
        -0.00849546249648241,
        -0.05390901016177772,
        0.06752188614594438,
        0.08559179017694074,
        0.05031009412598624,
        0.0653069629458333,
        0.1957321408328729,
        -0.08720155746251641,
        0.23130405858926667,
        -0.007211051591519093,
        0.02406430276815496,
        -0.05867076950417082,
        0.10297172384001575,
        0.11463628279654696,
        0.023520742140733693,
        -0.09073808919575437,
        0.02865135928724918,
        0.08666311983348837,
        0.14966235937799066,
        -0.018400170898843334,
        -0.1029586674994436,
        0.08188511951336715,
        0.11348718689592223,
        -0.050171557598678314,
        -0.08354435050245179,
        -0.04216850089640052,
        0.010645161191146921,
        0.03345452241410528,
        -0.13346288233122208,
        0.045498187722100264,
        -0.0760378113533255,
        0.062065643129302635,
        0.015157555437385301,
        -0.06594739084373978,
        0.05290986854470556,
        -0.07965836184011749,
        -0.16275693902838878,
        -0.09081775583457023,
        0.10125945155543531,
        -0.11644538145026423,
        0.10375349714316004,
        -0.06907254176237716,
        0.07801229838109686,
        -0.22399441116956764,
        0.07998037316784343,
        0.1087223745585585,
        -0.1664286262378622,
        0.15969229093360462,
        -0.08058757192406708,
        0.1877505746567511,
        0.24512738873975473,
        0.06226752109617169,
        0.08424096517884275,
        -0.055051541098281156,
        -0.15101532471438986,
        0.15872036229399855,
        -0.16262745695113173,
        -0.050076843157185136,
        0.0241318519509536,
        -0.13567505122324822,
        0.0770229109359847,
        0.155678411636109,
        -0.10073561917799803,
        0.17634818968501362,
        0.18148391238234307,
        -0.026496929172950583,
        -0.1285898862473276,
        -0.0010013151126823385,
        -0.03280397416421147,
        -0.19302639976904168,
        0.07466231309821307,
        0.11198031055323696,
        -0.13031885037920052,
        0.06211190396073302,
        0.1774538669069665,
        -0.06378963846811307,
        -0.0017506020158328565,
        -0.22998436121421575,
        0.11302412192906307,
        0.046799300779615416,
        -0.06952269689922606,
        0.23348812314020306,
        -0.07209518079155211,
        -0.0671984402373854,
        0.013716696155868834,
        -0.11060747411385698,
        0.07409975953217889,
        -0.1311471545498701,
        0.014849621523409707,
        0.24721771528104966,
        -0.1639560355827629,
        0.05776365906632543,
        -0.03792015086561073,
        -0.07205988778799985,
        0.20071393303097404,
        -0.057349278434933766,
        0.1708434091753943,
        0.13258347661830377,
        -0.07093348362422784,
        0.09475070375750018,
        0.05968273418872854,
        -0.07122488283444632,
        0.14630989671457983,
        0.10606857899076481,
        -0.06694124643118106,
        0.04826022628814266,
        0.2799231911347988,
        0.15692925310625624,
        0.056220494383235176,
        0.01853697208302449,
        0.031923484236275924,
        0.0024416101900540063,
        -0.2621586610753393,
        0.13463780224174218,
        0.0009201080669991374,
        0.0005971844059460823,
        -0.18726059350339144,
        -0.06649205725563043,
        0.04402796155947985,
        0.05614130241253898,
        0.13947449158990047,
        -0.06329173345466078,
        0.026040656311301418,
        -0.003640415939428703,
        -0.11773128228841179,
        -0.00291988585397864,
        0.09722280783330786,
        -0.09961703522985514,
        -0.08331776601967174,
        0.10478801684907536,
        0.17370739427659465,
        0.12584123932074479,
        0.027378620766473002,
        0.1551649179894846,
        -0.02057027813879956,
        0.05919839568065243,
        -0.16769494566759757,
        -0.2557616058593438,
        -0.03421911319990606,
        0.017404132732236274,
        -0.018633717049497657,
        0.0977070840981776,
        0.06648011418458531,
        0.09779299297490393,
        -0.06748792511597419,
        -0.18297354999974746,
        -0.11377368254632306,
        0.04409348790889376,
        0.2038624443259139,
        0.05442166195862379,
        -0.04923974021236279,
        -0.2636743789255968,
        0.06930100942918159,
        0.055449354693087795,
        -0.01546226145516317,
        0.12224485999484047,
        0.02587970248220355,
        0.034249784634531925,
        0.022329679557063414,
        0.1335414224066535,
        0.02389181716895835,
        -0.003008978638326376,
        0.29926675386190527,
        0.003493637624392826,
        0.03595370988188917,
        -0.12498028257293181,
        0.06928367298780941,
        0.06244797489454252,
        0.11509321704985102,
        -0.226047267541646,
        -0.012801321039410425,
        0.13488416775180842,
        -0.16436368123155987,
        0.2675594382217815,
        -0.10045429323360186,
        0.13703044156644822,
        0.026244803204780464,
        0.037331865185460646,
